{
  "features_info":
    {
      "float_features":
        [
          {
            "borders":
              [
                90.5,
                103.5,
                108.5,
                112.5,
                117.5
              ],
            "feature_id":"Heart_Rate",
            "feature_index":0,
            "flat_feature_index":0,
            "has_nans":false,
            "nan_value_treatment":"AsIs"
          },
          {
            "borders":
              [
                88.5,
                89.5,
                91.5,
                92.5,
                93.5,
                94.5,
                95.5
              ],
            "feature_id":"Oxygen_Saturation",
            "feature_index":1,
            "flat_feature_index":1,
            "has_nans":false,
            "nan_value_treatment":"AsIs"
          },
          {
            "borders":
              [
                88.5,
                93.5,
                97.5,
                99.5,
                104.5,
                112.5
              ],
            "feature_id":"Systolic_BP",
            "feature_index":2,
            "flat_feature_index":2,
            "has_nans":false,
            "nan_value_treatment":"AsIs"
          },
          {
            "borders":
              [
                37.450000762939453,
                37.549999237060547,
                37.650001525878906,
                38.25,
                38.650001525878906,
                39.150001525878906
              ],
            "feature_id":"Temperature",
            "feature_index":3,
            "flat_feature_index":3,
            "has_nans":false,
            "nan_value_treatment":"AsIs"
          }
        ]
    },
  "model_info":
    {
      "catboost_version_info":"Git info:\n    Commit: b1bd2a6d77219e82a1acfcedfccb8e6f6c1ee084\n    Branch: tags/v1.2.10\n    Author: akhropov <akhropov@yandex-team.com>\n    Summary: CatBoost release 1.2.10. commit_hash:f8e0038b19555d36a9ba7b81b6730254b352960d\n    git-svn info:\n    Last Changed Rev: 9293085\n\nOther info:\n    Build by: runneradmin\n    Top src dir: D:/a/catboost/catboost/catboost\n",
      "class_params":
        {
          "class_label_type":"Integer",
          "class_names":
            [
              0,
              1,
              2
            ],
          "class_to_label":
            [
              0,
              1,
              2
            ],
          "classes_count":0
        },
      "model_guid":"97b32791-fbbb00bf-b30786bc-4a6a6e86",
      "output_options":"{\"name\":\"experiment\",\"verbose\":0,\"test_error_log\":\"test_error.tsv\",\"json_log\":\"catboost_training.json\",\"result_model_file\":\"model\",\"roc_file\":\"\",\"eval_file_name\":\"\",\"use_best_model\":false,\"allow_writing_files\":true,\"prediction_type\":[\"RawFormulaVal\"],\"fstr_internal_file\":\"\",\"output_columns\":[\"SampleId\",\"RawFormulaVal\",\"Label\"],\"snapshot_interval\":600,\"time_left_log\":\"time_left.tsv\",\"fstr_type\":\"FeatureImportance\",\"profile_log\":\"catboost_profile.log\",\"train_dir\":\"catboost_info\",\"learn_error_log\":\"learn_error.tsv\",\"training_options_file\":\"\",\"snapshot_file\":\"experiment.cbsnapshot\",\"save_snapshot\":false,\"model_format\":[\"CatboostBinary\"],\"final_feature_calcer_computation_mode\":\"Default\",\"metric_period\":1,\"output_borders\":\"\",\"final_ctr_computation_mode\":\"Default\",\"best_model_min_trees\":1,\"fstr_regular_file\":\"\"}",
      "params":
        {
          "boosting_options":
            {
              "approx_on_full_history":false,
              "boost_from_average":false,
              "boosting_type":"Plain",
              "fold_len_multiplier":2,
              "fold_permutation_block":0,
              "iterations":10,
              "learning_rate":0.10000000149011612,
              "model_shrink_mode":"Constant",
              "model_shrink_rate":0,
              "od_config":
                {
                  "stop_pvalue":0,
                  "type":"None",
                  "wait_iterations":20
                },
              "permutation_count":4,
              "posterior_sampling":false
            },
          "cat_feature_params":
            {
              "combinations_ctrs":
                [
                  {
                    "ctr_binarization":
                      {
                        "border_count":15,
                        "border_type":"Uniform"
                      },
                    "ctr_type":"Borders",
                    "prior_estimation":"No",
                    "priors":
                      [
                        [
                          0,
                          1
                        ],
                        [
                          0.5,
                          1
                        ],
                        [
                          1,
                          1
                        ]
                      ],
                    "target_binarization":
                      {
                        "border_count":2,
                        "border_type":"MinEntropy"
                      }
                  },
                  {
                    "ctr_binarization":
                      {
                        "border_count":15,
                        "border_type":"Uniform"
                      },
                    "ctr_type":"Counter",
                    "prior_estimation":"No",
                    "priors":
                      [
                        [
                          0,
                          1
                        ]
                      ]
                  }
                ],
              "counter_calc_method":"SkipTest",
              "ctr_leaf_count_limit":18446744073709551615,
              "max_ctr_complexity":1,
              "one_hot_max_size":2,
              "per_feature_ctrs":
                {
                },
              "simple_ctrs":
                [
                  {
                    "ctr_binarization":
                      {
                        "border_count":15,
                        "border_type":"Uniform"
                      },
                    "ctr_type":"Borders",
                    "prior_estimation":"No",
                    "priors":
                      [
                        [
                          0,
                          1
                        ],
                        [
                          0.5,
                          1
                        ],
                        [
                          1,
                          1
                        ]
                      ],
                    "target_binarization":
                      {
                        "border_count":2,
                        "border_type":"MinEntropy"
                      }
                  },
                  {
                    "ctr_binarization":
                      {
                        "border_count":15,
                        "border_type":"Uniform"
                      },
                    "ctr_type":"Counter",
                    "prior_estimation":"No",
                    "priors":
                      [
                        [
                          0,
                          1
                        ]
                      ]
                  }
                ],
              "store_all_simple_ctr":false,
              "target_binarization":
                {
                  "border_count":1,
                  "border_type":"MinEntropy"
                }
            },
          "data_processing_options":
            {
              "allow_const_label":false,
              "auto_class_weights":"None",
              "class_names":
                [
                  0,
                  1,
                  2
                ],
              "class_weights":
                [
                ],
              "classes_count":0,
              "dev_default_value_fraction_for_sparse":0.82999998331069946,
              "dev_group_features":false,
              "dev_leafwise_scoring":false,
              "dev_sparse_array_indexing":"Indices",
              "embedding_processing_options":
                {
                  "embedding_processing":
                    {
                      "default":
                        [
                          "LDA",
                          "KNN"
                        ]
                    }
                },
              "eval_fraction":0,
              "float_features_binarization":
                {
                  "border_count":254,
                  "border_type":"GreedyLogSum",
                  "dev_max_subset_size_for_build_borders":200000,
                  "nan_mode":"Min"
                },
              "force_unit_auto_pair_weights":false,
              "has_time":false,
              "ignored_features":
                [
                ],
              "per_float_feature_quantization":
                {
                },
              "target_border":null,
              "text_processing_options":
                {
                  "dictionaries":
                    [
                      {
                        "dictionary_id":"BiGram",
                        "end_of_sentence_token_policy":"Skip",
                        "end_of_word_token_policy":"Insert",
                        "gram_order":"2",
                        "max_dictionary_size":"50000",
                        "occurrence_lower_bound":"5",
                        "skip_step":"0",
                        "start_token_id":"0",
                        "token_level_type":"Word"
                      },
                      {
                        "dictionary_id":"Word",
                        "end_of_sentence_token_policy":"Skip",
                        "end_of_word_token_policy":"Insert",
                        "gram_order":"1",
                        "max_dictionary_size":"50000",
                        "occurrence_lower_bound":"5",
                        "skip_step":"0",
                        "start_token_id":"0",
                        "token_level_type":"Word"
                      }
                    ],
                  "feature_processing":
                    {
                      "default":
                        [
                          {
                            "dictionaries_names":
                              [
                                "BiGram",
                                "Word"
                              ],
                            "feature_calcers":
                              [
                                "BoW"
                              ],
                            "tokenizers_names":
                              [
                                "Space"
                              ]
                          },
                          {
                            "dictionaries_names":
                              [
                                "Word"
                              ],
                            "feature_calcers":
                              [
                                "NaiveBayes"
                              ],
                            "tokenizers_names":
                              [
                                "Space"
                              ]
                          }
                        ]
                    },
                  "tokenizers":
                    [
                      {
                        "delimiter":" ",
                        "languages":
                          [
                          ],
                        "lemmatizing":"0",
                        "lowercasing":"0",
                        "number_process_policy":"LeaveAsIs",
                        "number_token":"🔢",
                        "separator_type":"ByDelimiter",
                        "skip_empty":"1",
                        "split_by_set":"0",
                        "subtokens_policy":"SingleToken",
                        "token_types":
                          [
                            "Number",
                            "Unknown",
                            "Word"
                          ],
                        "tokenizer_id":"Space"
                      }
                    ]
                }
            },
          "detailed_profile":false,
          "flat_params":
            {
              "depth":3,
              "iterations":10,
              "learning_rate":0.10000000000000001,
              "loss_function":"MultiClass",
              "verbose":0
            },
          "logging_level":"Silent",
          "loss_function":
            {
              "params":
                {
                },
              "type":"MultiClass"
            },
          "metadata":
            {
            },
          "metrics":
            {
              "custom_metrics":
                [
                ],
              "eval_metric":
                {
                  "params":
                    {
                    },
                  "type":"MultiClass"
                },
              "objective_metric":
                {
                  "params":
                    {
                    },
                  "type":"MultiClass"
                }
            },
          "pool_metainfo_options":
            {
              "tags":
                {
                }
            },
          "random_seed":0,
          "system_options":
            {
              "file_with_hosts":"hosts.txt",
              "node_port":0,
              "node_type":"SingleHost",
              "thread_count":20,
              "used_ram_limit":""
            },
          "task_type":"CPU",
          "tree_learner_options":
            {
              "bayesian_matrix_reg":0.10000000149011612,
              "bootstrap":
                {
                  "bagging_temperature":1,
                  "type":"Bayesian"
                },
              "depth":3,
              "dev_efb_max_buckets":1024,
              "dev_leafwise_approxes":false,
              "dev_score_calc_obj_block_size":5000000,
              "grow_policy":"SymmetricTree",
              "l2_leaf_reg":3,
              "leaf_estimation_backtracking":"AnyImprovement",
              "leaf_estimation_iterations":1,
              "leaf_estimation_method":"Newton",
              "max_leaves":8,
              "min_data_in_leaf":1,
              "model_size_reg":0.5,
              "monotone_constraints":
                {
                },
              "penalties":
                {
                  "feature_weights":
                    {
                    },
                  "first_feature_use_penalties":
                    {
                    },
                  "penalties_coefficient":1,
                  "per_object_feature_penalties":
                    {
                    }
                },
              "random_score_type":"NormalWithModelSizeDecrease",
              "random_strength":1,
              "rsm":1,
              "sampling_frequency":"PerTree",
              "score_function":"Cosine",
              "sparse_features_conflict_fraction":0
            }
        },
      "train_finish_time":"2026-04-29T22:33:41Z",
      "training":"{\"metrics\":{\"learn_best_error\":{\"MultiClass\":0.5453522444475447},\"test_metrics_history\":[],\"learn_metrics_history\":[{\"MultiClass\":0.9922850688213395},{\"MultiClass\":0.9057142781227489},{\"MultiClass\":0.8363436452442795},{\"MultiClass\":0.7747022951554479},{\"MultiClass\":0.7250325274568826},{\"MultiClass\":0.6829687491249495},{\"MultiClass\":0.6428564809182067},{\"MultiClass\":0.6079773687179099},{\"MultiClass\":0.5748742752327771},{\"MultiClass\":0.5453522444475447}],\"test_best_error\":[]}}"
    },
  "oblivious_trees":
    [
      {
        "leaf_values":
          [
            -0.035714286246470044,
            -0.014285714498588016,
            0.050000000745058074,
            -0.087500001303851507,
            -0.054166667473812831,
            0.14166666877766496,
            -0.062500000931322533,
            -0.062500000931322533,
            0.12500000186264515,
            -0.091588786411508222,
            -0.091588786411508236,
            0.18317757282301658,
            0.15089686323507304,
            -0.053587444744713719,
            -0.097309418490391708,
            -0.05315614697148837,
            0.12126246027871533,
            -0.06810631330722014,
            -0.040000000596046428,
            -0.025000000372529009,
            0.065000000968575514,
            -0.089772728610445302,
            -0.05568181901154215,
            0.14545454762198717
          ],
        "leaf_weights":
          [
            5,
            63,
            15,
            98,
            437,
            292,
            11,
            79
          ],
        "splits":
          [
            {
              "border":37.650001525878906,
              "float_feature_index":3,
              "split_index":20,
              "split_type":"FloatFeature"
            },
            {
              "border":112.5,
              "float_feature_index":0,
              "split_index":3,
              "split_type":"FloatFeature"
            },
            {
              "border":88.5,
              "float_feature_index":2,
              "split_index":12,
              "split_type":"FloatFeature"
            }
          ]
      },
      {
        "leaf_values":
          [
            -0.082406882754008773,
            0.018548200218273417,
            0.063858682535736455,
            -0.085184867862673611,
            -0.066835975106968329,
            0.15202084296964638,
            0.015232948762483879,
            0.062411767906083833,
            -0.077644716668569175,
            -0.082434127559674358,
            0.0080247185383553604,
            0.074409409021318887,
            -0.060349518699948417,
            0.13797895894939066,
            -0.077629440249444279,
            -0.078527323515839645,
            0.078687388145959325,
            -0.00016006463011970556,
            0.13751458866985652,
            -0.047807130707130933,
            -0.089707457962727513,
            -0.011419811563741788,
            0.085501869391123295,
            -0.074082057827381587
          ],
        "leaf_weights":
          [
            69,
            195,
            86,
            55,
            96,
            40,
            417,
            42
          ],
        "splits":
          [
            {
              "border":103.5,
              "float_feature_index":0,
              "split_index":1,
              "split_type":"FloatFeature"
            },
            {
              "border":92.5,
              "float_feature_index":1,
              "split_index":8,
              "split_type":"FloatFeature"
            },
            {
              "border":104.5,
              "float_feature_index":2,
              "split_index":16,
              "split_type":"FloatFeature"
            }
          ]
      },
      {
        "leaf_values":
          [
            0.0024007014343681932,
            0.01824915757659171,
            -0.02064985901095991,
            -0.082088519905720095,
            0.0090889628434656332,
            0.072999557062257484,
            0.12752575855296472,
            -0.047571112106011323,
            -0.079954646446921365,
            -0.026708987175397388,
            0.096184844878962547,
            -0.069475857703555785,
            -0.051415422427433022,
            -0.038438746796213168,
            0.089854169223646266,
            -0.071613782269110179,
            -0.067128206001186352,
            0.13874198827029455,
            -0.027755039961172762,
            -0.0063743786190073402,
            0.034129418580180114,
            -0.058337582947238301,
            -0.028716714101991621,
            0.087054297049229873
          ],
        "leaf_weights":
          [
            30,
            139,
            381,
            277,
            15,
            135,
            4,
            19
          ],
        "splits":
          [
            {
              "border":37.549999237060547,
              "float_feature_index":3,
              "split_index":19,
              "split_type":"FloatFeature"
            },
            {
              "border":99.5,
              "float_feature_index":2,
              "split_index":15,
              "split_type":"FloatFeature"
            },
            {
              "border":117.5,
              "float_feature_index":0,
              "split_index":4,
              "split_type":"FloatFeature"
            }
          ]
      },
      {
        "leaf_values":
          [
            -0.079946184358654929,
            0.026468543236606381,
            0.053477641122048371,
            0.03645623174321419,
            0.032974037978038939,
            -0.069430269721252671,
            -0.025733948654585632,
            0.10443671908288592,
            -0.078702770428302815,
            0.12055999288873574,
            -0.04571907705315241,
            -0.074840915835583111,
            -0.072991925930504742,
            -0.044243226989445633,
            0.11723515291995289,
            -0.070143164542965708,
            0.031540647053576239,
            0.038602517489389178,
            -0.073046803300137728,
            0.081248441720971371,
            -0.0082016384208342692,
            -0.0076175900815335703,
            0.073801978734161153,
            -0.066184388652627296
          ],
        "leaf_weights":
          [
            95,
            65,
            119,
            379,
            197,
            48,
            68,
            29
          ],
        "splits":
          [
            {
              "border":93.5,
              "float_feature_index":1,
              "split_index":9,
              "split_type":"FloatFeature"
            },
            {
              "border":104.5,
              "float_feature_index":2,
              "split_index":16,
              "split_type":"FloatFeature"
            },
            {
              "border":38.25,
              "float_feature_index":3,
              "split_index":21,
              "split_type":"FloatFeature"
            }
          ]
      },
      {
        "leaf_values":
          [
            -0.040785115713736136,
            -0.044411128668753116,
            0.085196244382489308,
            -0.065013222011997426,
            -0.046836557154658329,
            0.11184977916665628,
            0.10187127041666665,
            -0.036628441118106536,
            -0.065242829298564148,
            -0.025364543561972097,
            0.074434705782913127,
            -0.049070162220945172,
            0,
            0,
            0,
            -0.060098096201390942,
            -0.063378153417291347,
            0.12347624961868325,
            0,
            0,
            0,
            -0.067918300988441621,
            -0.032136182057668494,
            0.10005448304611034
          ],
        "leaf_weights":
          [
            11,
            86,
            379,
            385,
            0,
            75,
            0,
            64
          ],
        "splits":
          [
            {
              "border":37.450000762939453,
              "float_feature_index":3,
              "split_index":18,
              "split_type":"FloatFeature"
            },
            {
              "border":88.5,
              "float_feature_index":1,
              "split_index":5,
              "split_type":"FloatFeature"
            },
            {
              "border":39.150001525878906,
              "float_feature_index":3,
              "split_index":23,
              "split_type":"FloatFeature"
            }
          ]
      },
      {
        "leaf_values":
          [
            -0.052797169093637727,
            -0.030951656139830759,
            0.083748825233468674,
            0.05806196193981298,
            0.0075371840230701358,
            -0.065599145962880898,
            -0.066561466748407794,
            -0.040111659292353011,
            0.10667312604076026,
            -0.042916984114366501,
            0.074532812029070541,
            -0.031615827914708232,
            0,
            0,
            0,
            0.11153300202699662,
            -0.055645362833444408,
            -0.055887639193560254,
            0,
            0,
            0,
            0.016064217142100077,
            -0.025719779039845413,
            0.0096555618977454041
          ],
        "leaf_weights":
          [
            18,
            183,
            193,
            322,
            0,
            229,
            0,
            55
          ],
        "splits":
          [
            {
              "border":89.5,
              "float_feature_index":1,
              "split_index":6,
              "split_type":"FloatFeature"
            },
            {
              "border":37.549999237060547,
              "float_feature_index":3,
              "split_index":19,
              "split_type":"FloatFeature"
            },
            {
              "border":95.5,
              "float_feature_index":1,
              "split_index":11,
              "split_type":"FloatFeature"
            }
          ]
      },
      {
        "leaf_values":
          [
            -0.063386554251780428,
            -0.036745217006221263,
            0.10013177125800195,
            -0.068429763821486356,
            0.066821107286687054,
            0.0016086565348005157,
            -0.051228860651418184,
            -0.004922457530809143,
            0.056151318182227378,
            0.033815826243317131,
            0.034031002908852671,
            -0.067846829152172855,
            0,
            0,
            0,
            -0.015065952764511073,
            0.068973247484032441,
            -0.053907294719521617,
            0,
            0,
            0,
            0.10335667383779185,
            -0.040724127227900662,
            -0.062632546609885778
          ],
        "leaf_weights":
          [
            205,
            185,
            32,
            175,
            0,
            89,
            0,
            314
          ],
        "splits":
          [
            {
              "border":93.5,
              "float_feature_index":2,
              "split_index":13,
              "split_type":"FloatFeature"
            },
            {
              "border":93.5,
              "float_feature_index":1,
              "split_index":9,
              "split_type":"FloatFeature"
            },
            {
              "border":112.5,
              "float_feature_index":2,
              "split_index":17,
              "split_type":"FloatFeature"
            }
          ]
      },
      {
        "leaf_values":
          [
            -0.051352961301558975,
            0.074209605891963626,
            -0.022856644590404693,
            -0.079364160487363097,
            0.036703695127139287,
            0.042660465360224241,
            0.10090647129262484,
            -0.042083174347766233,
            -0.058823296944847253,
            0.01735749254702677,
            0.049192065625063883,
            -0.066549558172091267,
            -0.047758668258160428,
            0.02871119581629358,
            0.019047472441866886,
            -0.063644677455182389,
            -0.028838784979252827,
            0.092483462434437766,
            -0.0029532599147830234,
            0.047110574165006934,
            -0.044157314250223914,
            -0.066689192671719896,
            0.049215165993415924,
            0.017474026678303858
          ],
        "leaf_weights":
          [
            13,
            90,
            317,
            238,
            17,
            188,
            30,
            107
          ],
        "splits":
          [
            {
              "border":90.5,
              "float_feature_index":0,
              "split_index":0,
              "split_type":"FloatFeature"
            },
            {
              "border":91.5,
              "float_feature_index":1,
              "split_index":7,
              "split_type":"FloatFeature"
            },
            {
              "border":38.25,
              "float_feature_index":3,
              "split_index":21,
              "split_type":"FloatFeature"
            }
          ]
      },
      {
        "leaf_values":
          [
            -0.070908656987785507,
            0.020707813671587305,
            0.050200843316198722,
            -0.012686651958832288,
            0.037177325127681793,
            -0.024490673168849508,
            -0.052290879639363068,
            -0.046756098583313796,
            0.09904697822267805,
            -0.0535655069998019,
            -0.020137434541143091,
            0.073702941540945033,
            -0.00056032261731992644,
            0.066250560910629183,
            -0.065690238293309736,
            0.088808490412746036,
            -0.027897398141393762,
            -0.060911092271328994,
            -0.061952159147238485,
            0.011844201655686346,
            0.050107957491552016,
            -0.0090676344468335439,
            0.039467884113874571,
            -0.030400249667041072
          ],
        "leaf_weights":
          [
            80,
            23,
            164,
            22,
            299,
            347,
            54,
            11
          ],
        "splits":
          [
            {
              "border":94.5,
              "float_feature_index":1,
              "split_index":10,
              "split_type":"FloatFeature"
            },
            {
              "border":108.5,
              "float_feature_index":0,
              "split_index":2,
              "split_type":"FloatFeature"
            },
            {
              "border":97.5,
              "float_feature_index":2,
              "split_index":14,
              "split_type":"FloatFeature"
            }
          ]
      },
      {
        "leaf_values":
          [
            -0.032949953075965113,
            0.073366527956871624,
            -0.040416574880906317,
            -0.052218698203410852,
            -0.038609700836563454,
            0.090828399039973876,
            0.074376525893790776,
            -0.0074758947967463671,
            -0.066900631097042779,
            -0.037570457738237674,
            0.014708418142197312,
            0.022862039596040384,
            -0.070335557112958302,
            0.016531388564511026,
            0.053804168548446711,
            -0.045244252686339116,
            -0.044975423977432899,
            0.090219676663771689,
            -0.060280966719333091,
            0.062085235378425217,
            -0.0018042686590920927,
            -0.038106199005641911,
            -0.034401213592802397,
            0.072507412598444315
          ],
        "leaf_weights":
          [
            212,
            74,
            466,
            14,
            93,
            100,
            26,
            15
          ],
        "splits":
          [
            {
              "border":112.5,
              "float_feature_index":0,
              "split_index":3,
              "split_type":"FloatFeature"
            },
            {
              "border":93.5,
              "float_feature_index":1,
              "split_index":9,
              "split_type":"FloatFeature"
            },
            {
              "border":38.650001525878906,
              "float_feature_index":3,
              "split_index":22,
              "split_type":"FloatFeature"
            }
          ]
      }
    ],
  "scale_and_bias":
    [
      1,
      [
        0,
        0,
        0
      ]
    ]
}